<?xml version="1.0"?>
<opencv_storage>
<stage0>
  <maxWeakCount>5</maxWeakCount>
  <stageThreshold>-9.6162617206573486e-01</stageThreshold>
  <weakClassifiers>
    <_>
      <internalNodes>
        0 -1 51880 -1.1082580313086510e-03</internalNodes>
      <leafValues>
        7.0488888025283813e-01 -7.8133332729339600e-01</leafValues></_>
    <_>
      <internalNodes>
        0 -1 37543 -2.5172538589686155e-03</internalNodes>
      <leafValues>
        5.2085691690444946e-01 -7.9902607202529907e-01</leafValues></_>
    <_>
      <internalNodes>
        0 -1 34662 2.7753174304962158e-02</internalNodes>
      <leafValues>
        -5.5330753326416016e-01 7.4892574548721313e-01</leafValues></_>
    <_>
      <internalNodes>
        0 -1 44233 -1.7849095165729523e-02</internalNodes>
      <leafValues>
        5.8852183818817139e-01 -7.1719127893447876e-01</leafValues></_>
    <_>
      <internalNodes>
        0 -1 72636 -1.3310892507433891e-02</internalNodes>
      <leafValues>
        5.8351898193359375e-01 -5.8108198642730713e-01</leafValues></_></weakClassifiers></stage0>
</opencv_storage>
