<?xml version="1.0"?>
<opencv_storage>
<stage8>
  <maxWeakCount>7</maxWeakCount>
  <stageThreshold>-8.2922613620758057e-01</stageThreshold>
  <weakClassifiers>
    <_>
      <internalNodes>
        0 -1 31729 -7.9981014132499695e-03</internalNodes>
      <leafValues>
        5.5628597736358643e-01 -6.2544167041778564e-01</leafValues></_>
    <_>
      <internalNodes>
        0 -1 61956 6.3743162900209427e-04</internalNodes>
      <leafValues>
        -5.4490852355957031e-01 3.8301774859428406e-01</leafValues></_>
    <_>
      <internalNodes>
        0 -1 32739 -1.0759161785244942e-02</internalNodes>
      <leafValues>
        -9.1506201028823853e-01 2.8540226817131042e-01</leafValues></_>
    <_>
      <internalNodes>
        0 -1 54871 2.4639790877699852e-02</internalNodes>
      <leafValues>
        -4.5380282402038574e-01 4.7426369786262512e-01</leafValues></_>
    <_>
      <internalNodes>
        0 -1 70996 -7.9982597380876541e-03</internalNodes>
      <leafValues>
        6.8503046035766602e-01 -2.9414808750152588e-01</leafValues></_>
    <_>
      <internalNodes>
        0 -1 73152 -1.4902304392307997e-03</internalNodes>
      <leafValues>
        5.3540384769439697e-01 -3.4828618168830872e-01</leafValues></_>
    <_>
      <internalNodes>
        0 -1 59707 1.4257858856581151e-04</internalNodes>
      <leafValues>
        2.2403261065483093e-01 -7.6823675632476807e-01</leafValues></_></weakClassifiers></stage8>
</opencv_storage>
