<?xml version="1.0"?>
<opencv_storage>
<stage7>
  <maxWeakCount>8</maxWeakCount>
  <stageThreshold>-1.0559027194976807e+00</stageThreshold>
  <weakClassifiers>
    <_>
      <internalNodes>
        0 -1 36147 -6.2023110687732697e-02</internalNodes>
      <leafValues>
        -7.8640776872634888e-01 5.1159197092056274e-01</leafValues></_>
    <_>
      <internalNodes>
        0 -1 46611 9.2862942256033421e-04</internalNodes>
      <leafValues>
        3.1834694743156433e-01 -7.3015987873077393e-01</leafValues></_>
    <_>
      <internalNodes>
        0 -1 50710 6.8246079608798027e-03</internalNodes>
      <leafValues>
        -4.2175403237342834e-01 5.4650592803955078e-01</leafValues></_>
    <_>
      <internalNodes>
        0 -1 64905 1.2706238776445389e-03</internalNodes>
      <leafValues>
        -6.4617574214935303e-01 3.5223373770713806e-01</leafValues></_>
    <_>
      <internalNodes>
        0 -1 41895 -2.6251504197716713e-02</internalNodes>
      <leafValues>
        3.6852645874023438e-01 -5.1223731040954590e-01</leafValues></_>
    <_>
      <internalNodes>
        0 -1 56976 7.7855912968516350e-03</internalNodes>
      <leafValues>
        2.4399711191654205e-01 -8.3468931913375854e-01</leafValues></_>
    <_>
      <internalNodes>
        0 -1 54213 5.5134517606347799e-04</internalNodes>
      <leafValues>
        -5.1089292764663696e-01 3.7280264496803284e-01</leafValues></_>
    <_>
      <internalNodes>
        0 -1 49369 7.3953683022409678e-04</internalNodes>
      <leafValues>
        1.5914389491081238e-01 -9.3679797649383545e-01</leafValues></_></weakClassifiers></stage7>
</opencv_storage>
